<?xml version="1.0" encoding="UTF-8"?>
<!-- This network was created in GeNIe Academic, which can be used for academic teaching and research purposes only -->
<smile version="1.0" id="Network1" numsamples="10000" discsamples="10000">
	<nodes>
		<cpt id="starting_injection_pressure" diagtype="target">
			<state id="good" />
			<state id="bad" fault="true" />
			<probabilities>0.99 0.01</probabilities>
		</cpt>
		<cpt id="Poor_atom" diagtype="target">
			<state id="good" />
			<state id="bad" fault="true" />
			<probabilities>0.99 0.01</probabilities>
		</cpt>
		<cpt id="FuelI_Block" diagtype="target">
			<state id="good" />
			<state id="bad" fault="true" />
			<probabilities>0.99 0.01</probabilities>
		</cpt>
		<cpt id="Fuel_injector" diagtype="target">
			<state id="good" />
			<state id="deterioration" fault="true" />
			<state id="bad" fault="true" />
			<parents>starting_injection_pressure Poor_atom FuelI_Block</parents>
			<probabilities>0.9 0.08999999999999998 0.01 0.05000000000000004 0.2 0.75 0.15 0.2 0.65 0.02000000000000002 0.2 0.78 0.09999999999999998 0.2 0.7 0.04000000000000004 0.2 0.76 0.07999999999999996 0.2 0.72 0.01000000000000001 0.2 0.79</probabilities>
		</cpt>
		<cpt id="star_Pre" diagtype="observation" ranked="true">
			<state id="fail" />
			<state id="pass" />
			<parents>starting_injection_pressure</parents>
			<probabilities>0.01000000000000001 0.99 0.99 0.01</probabilities>
		</cpt>
		<cpt id="Inj_pre" diagtype="observation" ranked="true">
			<state id="fail" />
			<state id="pass" />
			<parents>FuelI_Block</parents>
			<probabilities>0.01000000000000001 0.99 0.99 0.01</probabilities>
		</cpt>
	</nodes>
	<extensions>
		<genie version="1.0" app="GeNIe 4.1.3402.0 ACADEMIC" name="Network1">
			<node id="Fuel_injector">
				<name>Copy of 喷油器</name>
				<interior color="e5f6f7" />
				<outline color="000080" />
				<font color="000000" name="Arial" size="10" />
				<position>764 168 937 241</position>
				<barchart active="true" width="209" height="92" />
			</node>
			<node id="starting_injection_pressure">
				<name>Copy of 起喷压力低</name>
				<interior color="e5f6f7" />
				<outline color="000080" />
				<font color="000000" name="Arial" size="10" />
				<position>646 503 819 576</position>
				<barchart active="true" width="169" height="69" />
			</node>
			<node id="Poor_atom">
				<name>Copy of 喷油器雾化不良</name>
				<interior color="e5f6f7" />
				<outline color="000080" />
				<font color="000000" name="Arial" size="10" />
				<position>835 504 1015 577</position>
				<barchart active="true" width="169" height="69" />
			</node>
			<node id="FuelI_Block">
				<name>Copy of 喷油器阻塞</name>
				<interior color="e5f6f7" />
				<outline color="000080" />
				<font color="000000" name="Arial" size="10" />
				<position>1016 416 1189 489</position>
				<barchart active="true" width="169" height="69" />
			</node>
			<node id="star_Pre">
				<name>Copy of 起喷压力检测</name>
				<interior color="e5f6f7" />
				<outline color="000080" />
				<font color="000000" name="Arial" size="8" />
				<position>541 357 630 411</position>
				<barchart active="true" width="128" height="64" />
			</node>
			<node id="Inj_pre">
				<name>Copy of 喷油压力</name>
				<interior color="e5f6f7" />
				<outline color="000080" />
				<font color="000000" name="Arial" size="8" />
				<position>1124 272 1215 319</position>
				<barchart active="true" width="128" height="64" />
			</node>
		</genie>
	</extensions>
</smile>
